svm_type c_svc
kernel_type rbf
gamma 2
nr_class 2
total_sv 12
rho 0.38880718521750501
label 1 0
nr_sv 6 6
SV
0.81216289329705549 1:0.709981 2:1 
0.59369555681151687 1:1 2:0.598086 
2 1:0.472693 2:0.062201 
0.68124075376148163 1:0.178908 2:-0.172249 
1.5534809764210384 1:-0.397363 2:-0.0669856 
2 1:-0.103578 2:-0.488038 
-0.65354672355918109 1:-1 2:0.076555 
-1.9870545276030416 1:-0.623352 2:-0.727273 
-1.4269692990228651 1:0.491525 2:-0.430622 
-2 1:0.559322 2:-0.253589 
-1.2484099958299997 1:-0.559322 2:0.569378 
-0.32459963427600524 1:0.318267 2:-1 
